-11.2243 -7.36786 -27.9428 
-11.2243 -7.36786 -27.9428 
-11.2243 -7.36786 -27.9428 
-11.2243 -7.36786 -27.9428 
-11.2243 -7.36786 -27.9428 
-11.2243 -7.36786 -27.9428 
-11.2243 -7.36786 -27.9428 
-11.2243 -7.36786 -27.9428 
-11.2243 -7.36786 -27.9428 
-11.2243 -7.36786 -27.9428 
-11.2243 -7.36786 -27.9428 
-11.2243 -7.36786 -27.9428 
-11.2243 -7.36786 -27.9428 
-11.2243 -7.36786 -27.9428 
-11.2243 -7.36786 -27.9428 
-11.2243 -7.36786 -27.9428 
25.8331 -21.6311 -9.53821 
25.8331 -21.8383 1.83269 
25.8331 -2.46065 -8.80905 
25.8331 -21.8383 -11.3671 
25.8331 -21.8383 -9.53821 
25.8331 -21.8383 -10.786 
25.8331 -2.46065 -9.53821 
25.8331 -21.5371 1.83269 
25.8331 -2.46065 -8.80905 
25.1894 -2.46065 -8.80905 
25.8331 -2.46606 -8.80905 
25.8331 -2.46065 -9.40591 
25.8331 -2.46065 -9.53821 
25.8331 -2.46065 -9.53821 
25.8331 -2.46065 -9.30896 
25.8331 -2.46065 -9.53821 
24.3168 -2.46065 -8.80905 
25.8331 -2.46606 -7.49764 
25.8331 -1.28392 -8.80905 
26.3607 -2.46065 -8.80905 
25.8331 -2.46606 -8.69518 
25.8331 -2.46065 -8.80905 
25.8331 -2.46065 -8.80905 
25.8331 -2.46065 -8.80905 
25.8331 -2.46065 -8.80905 
25.8331 -2.46606 -8.80905 
25.8331 -1.76451 -7.49764 
25.8331 -2.46606 -8.80905 
25.8331 -2.46606 -7.49764 
25.0777 -2.46606 -7.49764 
26.7803 -2.46606 -7.49764 
25.8331 -2.46606 -9.99933 
26.7803 -2.46606 -5.98618 
26.7803 -2.46606 -7.49764 
26.332 -1.76451 -7.49764 
25.1018 -2.46606 -7.49764 
26.7803 -2.46606 -7.49764 
26.7803 -2.46606 -7.49764 
26.7803 -2.46606 -6.81685 
26.7803 -2.46606 -9.45586 
25.0247 -2.46606 -6.81685 
26.7803 -3.26529 -5.98618 
26.7803 -2.46606 -6.5597 
26.7803 -1.93752 -5.98618 
26.7803 -2.46606 -6.81685 
26.7803 -2.46606 -6.72787 
26.7803 -2.46606 -5.98618 
26.7803 -2.46606 -5.98618 
26.3508 -2.46606 -6.81685 
25.0247 -0.8059 -6.81685 
25.0247 -1.50894 -5.98618 
25.0247 -2.46606 -6.81685 
25.0247 -2.46606 -5.43463 
25.0247 -2.46606 -4.01134 
23.4522 -2.46606 -6.81685 
25.0247 -3.26529 -5.98618 
25.0247 -0.8059 -4.65136 
25.0247 -0.8059 -6.81685 
25.0247 -0.8059 -5.98618 
25.6019 -1.50894 -5.98618 
25.0247 -0.8059 -6.81685 
25.0247 -1.77141 -6.81685 
25.0247 -0.8059 -6.81685 
25.0247 -0.8059 -6.81685 
25.0247 -0.8059 -6.81685 
24.6429 -0.8059 -6.81685 
25.0247 -0.8059 -6.81685 
25.0247 -0.8059 -6.81685 
25.0247 -0.8059 -6.81685 
25.0247 -0.8059 -6.81685 
25.0247 -1.95885 -6.81685 
25.0247 -0.8059 -6.81685 
25.0247 -0.8059 -6.81685 
25.0247 -0.8059 -6.81685 
25.0247 -0.8059 -6.81685 
25.0247 -0.8059 -6.81685 
25.0247 -0.8059 -6.81685 
25.0247 -0.8059 -6.81685 
25.0247 -0.8059 -6.81685 
25.0247 -0.8059 -5.42578 
25.0247 -0.8059 -7.82818 
25.0247 -0.8059 -5.46621 
25.0498 -0.8059 -6.81685 
25.0247 -0.8059 -6.81685 
25.0247 -0.8059 -6.81685 
25.0247 -0.8059 -6.81685 
25.0247 -0.8059 -6.81685 
24.6592 -0.8059 -6.81685 
25.0247 -0.8059 -6.21875 
24.8576 -0.8059 -7.82818 
25.0247 -0.8059 -5.46621 
25.0247 0.176105 -5.46621 
25.0247 -0.8059 -6.16505 
25.0247 -0.8059 -7.82818 
25.0247 -0.8059 -7.82818 
25.0247 -0.8059 -5.46621 
24.8576 -0.8059 -7.82818 
24.8576 -0.8059 -7.82818 
24.8576 -0.8059 -7.82818 
24.8576 -0.8059 -7.82818 
24.8576 -0.8059 -7.82818 
24.8576 -0.8059 -7.00988 
24.8576 -0.8059 -7.82818 
24.8576 -0.8059 -7.82818 
24.8576 -0.8059 -7.82818 
24.8576 1.09773 -7.82818 
24.8576 -0.8059 -7.82818 
26.7636 -0.8059 -7.82818 
24.8576 -1.3527 -7.82818 
24.8576 -0.8059 -7.82818 
24.8576 -1.85028 -7.82818 
24.8576 -0.8059 -8.87789 
24.8576 -1.85028 -7.82818 
24.8576 -0.8059 -7.82818 
24.8576 -0.8059 -8.87789 
24.8576 -1.5761 -7.82818 
24.8576 -1.85028 -7.82818 
24.8576 -1.85028 -5.86426 
24.8576 -1.85028 -5.91521 
25.8537 -1.85028 -7.82818 
24.8576 -1.5761 -7.82818 
24.8576 -1.85028 -6.40991 
25.246 -1.5761 -7.82818 
24.8576 -1.5761 -7.82818 
24.8576 -1.85028 -7.82818 
24.8576 -1.5761 -7.82818 
24.8576 -1.85028 -7.82818 
26.6887 -1.85028 -7.82818 
24.8576 -1.5761 -7.08363 
24.8576 -1.5761 -7.82818 
24.8576 -0.0836006 -7.82818 
24.8576 -1.5761 -7.82818 
24.8576 -1.5761 -7.52042 
24.8576 -1.5761 -8.20139 
24.8576 -1.5761 -7.82818 
24.8576 -1.5761 -7.82818 
24.8576 -1.5761 -7.08363 
24.8576 -3.36929 -7.08363 
24.8576 -0.0836006 -7.82818 
24.8576 -1.5761 -5.09895 
24.8576 -1.5761 -7.82488 
24.8576 -0.0836006 -7.82818 
24.0076 -0.0836006 -7.82818 
26.4134 -1.5761 -7.08363 
24.8576 -1.5761 -6.89567 
24.8576 -1.5761 -5.09895 
24.8576 -1.5761 -6.52097 
24.8576 -1.5761 -5.09895 
24.8576 -1.5761 -5.09895 
24.8576 -1.5761 -7.08363 
24.8576 -1.5761 -7.08363 
24.8576 -1.5761 -5.09895 
-22.4014 13.4462 3.0628 
-22.4014 12.0525 -21.1114 
-22.4014 -1.18588 3.55803 
-22.4014 12.0525 3.93355 
-22.4014 12.0525 3.0628 
-22.4014 12.0525 3.99316 
-22.4014 -1.18588 3.0628 
-22.4014 11.0838 -21.1114 
-22.4014 13.4462 -21.1114 
-23.5073 12.0525 -21.1114 
-22.4014 12.995 -21.1114 
-22.4014 12.0525 -22.2611 
-22.4014 13.4462 3.0628 
-22.4014 13.4462 3.0628 
-22.4014 13.4462 3.01772 
-22.4014 13.4462 3.0628 
-22.364 13.4462 -21.1114 
-22.4014 12.0525 -20.9176 
-22.4014 11.5436 -21.1114 
-22.6188 13.4462 -21.1114 
-22.4014 12.0525 -20.7726 
-22.4014 13.4462 -21.1114 
-22.4014 13.4462 -21.1114 
-22.4014 13.4462 -21.1114 
-22.364 12.0525 -20.9176 
-22.364 13.4462 -20.9176 
-22.364 13.5426 -21.1114 
-22.364 13.4462 -20.9176 
-22.364 13.4462 -21.1114 
-22.1487 13.4462 -21.1114 
-22.4303 13.4462 -21.1114 
-22.364 13.4462 -19.7711 
-22.364 12.0525 -21.6595 
-22.364 12.0525 -20.9176 
-21.4299 13.4462 -20.9176 
-21.4634 12.0525 -20.9176 
-22.364 12.0525 -20.9176 
-22.364 12.0525 -20.9176 
-22.364 12.0525 -22.3923 
-22.364 12.0525 -20.3111 
-22.1066 12.0525 -21.6595 
-22.364 13.6776 -20.9176 
-22.364 12.0525 -20.139 
-22.364 11.883 -20.9176 
-22.364 12.0525 -21.6595 
-22.364 12.0525 -23.3146 
-22.364 12.0525 -20.9176 
-22.364 12.0525 -20.9176 
0.462323 -26.4951 -20.576 
0.462323 -24.943 19.7764 
0.462323 -24.9029 -18.8134 
0.462323 -24.943 -19.8667 
0.462323 -24.943 -20.576 
0.462323 -24.943 -21.4727 
0.462323 -24.9029 -20.576 
0.462323 -25.2857 19.7764 
0.462323 -24.943 19.7764 
-0.774373 -25.2857 19.7764 
0.462323 -26.2481 19.7764 
0.462323 -25.2857 17.8016 
0.462323 -24.943 19.7764 
0.462323 -24.943 19.7764 
0.462323 -24.943 20.0539 
0.462323 -24.943 19.7764 
-0.71437 -26.2481 19.7764 
0.462323 -24.943 20.7915 
0.462323 -27.4066 19.7764 
-0.843993 -26.2481 19.7764 
0.462323 -24.943 18.6023 
0.462323 -26.2481 19.7764 
0.462323 -26.2481 19.7764 
0.462323 -26.2481 19.7764 
-0.71437 -24.943 20.7915 
-0.71437 -26.2481 20.7915 
-0.71437 -25.3395 19.7764 
-0.71437 -26.2481 20.7915 
-0.71437 -26.2481 19.7764 
-1.41655 -26.2481 19.7764 
-0.0607453 -26.2481 19.7764 
-0.71437 -26.2481 22.5341 
-0.71437 -24.943 20.3921 
-0.71437 -24.943 20.7915 
-0.412352 -26.2481 20.7915 
-2.55146 -24.943 20.7915 
-0.71437 -24.943 20.7915 
-0.71437 -24.943 20.7915 
-0.71437 -24.943 19.9228 
-0.71437 -24.943 21.5671 
0.698804 -24.943 20.3921 
-0.71437 -23.2558 20.7915 
-0.71437 -24.943 20.749 
-0.71437 -26.4742 20.7915 
-0.71437 -24.943 20.3921 
-0.71437 -24.943 22.3139 
-0.71437 -24.943 20.7915 
-0.71437 -24.943 20.7915 
0.742259 -24.943 20.3921 
0.698804 -24.6367 20.3921 
0.698804 -26.7814 20.7915 
0.698804 -24.943 20.3921 
0.698804 -24.943 21.3855 
0.698804 -24.943 22.2671 
-1.05641 -24.943 20.3921 
0.698804 -23.2558 20.7915 
0.742259 -24.943 20.4263 
0.742259 -24.943 20.3921 
0.742259 -24.943 20.3921 
-0.459113 -24.6367 20.3921 
0.742259 -24.943 20.3921 
0.742259 -23.4918 20.3921 
0.742259 -24.943 20.3921 
0.742259 -24.943 20.3921 
0.742259 -24.943 20.3921 
-0.386902 -24.943 20.3921 
0.742259 -24.943 20.3921 
0.742259 -24.943 20.4263 
0.742259 -24.943 20.4263 
0.742259 -24.943 20.4263 
0.742259 -25.9353 20.4263 
0.742259 -24.943 20.3921 
0.742259 -24.943 20.3921 
0.742259 -24.943 20.3921 
0.742259 -24.943 20.3921 
0.742259 -24.943 20.3921 
0.742259 -24.943 20.3921 
0.742259 -24.943 20.3921 
0.742259 -24.943 20.3921 
0.742259 -24.943 20.1093 
0.742259 -24.943 18.9487 
0.742259 -24.943 21.4192 
-0.255171 -24.943 20.3921 
0.742259 -24.943 20.3921 
0.742259 -24.943 20.3921 
0.742259 -24.943 20.3921 
0.742259 -24.943 20.3921 
0.653368 -24.943 20.3921 
0.742259 -24.943 22.1686 
0.83423 -24.943 21.4192 
0.742259 -24.943 18.9487 
0.742259 -22.9813 18.9487 
0.742259 -24.943 19.494 
0.742259 -24.943 21.4192 
0.742259 -24.943 21.4192 
0.742259 -24.943 18.9487 
0.742259 -24.943 22.1686 
0.742259 -24.943 21.4192 
0.742259 -24.943 21.4192 
0.742259 -24.943 21.4192 
0.742259 -24.943 21.4192 
0.742259 -24.943 21.8635 
0.742259 -24.943 21.4192 
0.742259 -24.943 22.1686 
0.742259 -24.943 22.1686 
0.742259 -24.3982 22.1686 
0.742259 -24.943 21.4192 
1.78645 -24.943 21.4192 
0.742259 -26.4847 22.1686 
0.742259 -24.943 21.4192 
0.742259 -26.0852 21.4192 
0.742259 -24.943 22.129 
0.742259 -24.3982 22.1686 
0.742259 -24.943 22.1686 
0.742259 -24.943 22.1686 
0.742259 -25.1489 22.1686 
0.742259 -24.3982 22.1686 
0.742259 -24.3982 23.6998 
0.742259 -24.3982 23.5382 
-1.17302 -24.3982 22.1686 
0.742259 -25.1489 22.1686 
0.742259 -24.3982 21.4166 
-0.574091 -25.1489 22.1686 
0.742259 -25.1489 22.1686 
0.742259 -24.3982 22.1686 
0.742259 -25.1489 22.1686 
0.742259 -24.3982 22.1686 
1.48204 -24.3982 22.1686 
0.742259 -25.1489 20.8985 
0.742259 -25.1489 22.1686 
0.742259 -26.0509 22.1686 
0.742259 -25.1489 22.1686 
0.742259 -24.3982 20.3501 
0.742259 -24.3982 21.4249 
0.742259 -25.1489 22.1686 
0.742259 -24.3982 21.4166 
0.742259 -25.1489 20.8985 
0.742259 -24.1493 20.8985 
0.742259 -25.1489 22.1686 
0.742259 -25.1489 21.0505 
0.742259 -25.1489 22.1418 
0.742259 -25.1489 22.1686 
1.09579 -25.1489 22.1686 
1.38891 -25.1489 20.8985 
0.742259 -24.1493 19.2666 
0.742259 -24.1493 20.8985 
0.742259 -24.1493 19.9741 
0.742259 -24.1493 20.8985 
0.742259 -25.1489 20.8985 
0.742259 -25.1489 20.8985 
0.742259 -25.1489 20.8985 
0.742259 -24.1493 20.8985 
0.742259 -24.1493 20.8985 
0.742259 -24.1493 20.8985 
2.4183 -24.1493 19.2666 
0.742259 -24.618 19.2666 
0.742259 -24.1493 19.2666 
0.742259 -24.1493 20.8985 
0.742259 -24.1493 20.8985 
0.742259 -24.1493 20.8985 
0.742259 -24.1493 20.8985 
0.742259 -24.1493 20.8985 
0.742259 -24.1493 20.8985 
-0.0749275 -24.1493 20.8985 
1.60038 -24.1493 20.8985 
0.742259 -24.1493 20.8985 
0.742259 -24.1493 20.5119 
0.742259 -25.1251 20.8985 
